[
    {
        "W": [
            [
                -0.16312108443133108,
                0.2894089011273087,
                -0.02259766726269216,
                -0.3500577680707972,
                -0.5999873115896593,
                -0.4534851485482831,
                0.4628847580660108,
                -0.397489176232701,
                -0.4072153286083934,
                -0.15220094352658087
            ]
        ],
        "b": [
            [
                -0.54075065124317,
                -0.442655534656651,
                -0.40377626590801435,
                0.0,
                0.0,
                0.0,
                -0.5869020689393288,
                -0.44130013445011884,
                0.0,
                0.0
            ]
        ]
    },
    {
        "W": [
            [
                -0.11112379384042519
            ],
            [
                -0.18424895629145616
            ],
            [
                -0.1618355793260634
            ],
            [
                -0.31736182886710873
            ],
            [
                -0.023775701622987033
            ],
            [
                -0.40352549128705334
            ],
            [
                -0.5517779562856084
            ],
            [
                0.06879612615642527
            ],
            [
                0.5542747880974233
            ],
            [
                -0.0211412789422063
            ]
        ],
        "b": [
            [
                0.5806336952888775
            ]
        ]
    }
]